-0.00961612723768
-0.00614596530795
0.00164307199884
0.00648558652028
-0.000431215798017
-0.00478834984824
0.00246893940493
0.00404711440206
-0.00134544295724
-0.0055482937023
0.00296775344759
-0.00142049707938
0.000127752195112
-0.00220612878911
-0.000267899566097
0.00476673617959
0.0027936771512
-4.94304222229e-05
-0.000216213229578
-0.0100886616856
-0.00333552341908
0.00145004154183
-0.0154302371666
-0.00517400400713
-0.000967150146607
0.00265935831703
-0.00283271470107
0.0119030876085
0.00619391631335
-0.00129284348805
0.00114552327432
-0.0111773116514
0.00356241990812
-0.000638489378616
-0.00274892454036
0.00171884952579
-0.0104764085263
0.00325739546679
0.000653119932394
-0.00494953244925
-0.00236773258075
-0.00329584768042
-0.00155957986135
-0.0023430432193
-0.00238785520196
0.00131963694002
-0.00610491726547
-0.00581214157864
-0.00233604502864
0.00659011304379
0.000546367373317
0.00212347693741
0.0097038699314
0.00119283411186
-0.00232766405679
-0.00639954721555
-0.00385220744647
0.0112409051508
-0.00358549063094
-0.00115161284339
0.0014069667086
0.00124961929396
-0.00467666704208
-0.00293027469888
-0.00872098561376
-0.00119450932834
0.00199766876176
0.0131952697411
-0.00233847624622
0.00137640896719
0.00161914958153
0.00203604437411
0.00708208233118
-0.00787746626884
0.000718188122846
0.00816906243563
-0.00550941564143
-0.00824186205864
0.00234499573708
-0.000116315371997
-0.00692346459255
0.00131526566111
0.00343141052872
-0.00237950729206
0.00494539598003
0.0102836536244
0.020003374666
-0.0027898689732
0.00879335775971
0.00599013920873
0.000217409615288
0.00173839973286
-0.00353896571323
0.00114164885599
-0.00288442871533
-0.00393587723374
-0.00427533546463
-0.00591797754169
0.00413251062855
-0.0032649403438
0.00745467236266
-0.00853077508509
-0.00200342293829
0.0133062936366
0.00896586943418
0.00474399561062
-0.000511278398335
0.00747697940096
-0.00751348026097
-0.00502196839079
0.000116276809422
-0.00557632604614
-0.00180991145317
-0.01184109319
-0.000147197017213
-0.00692992983386
0.00701174559072
0.00101569469552
0.00730308843777
-0.014810886234
-0.0054314173758
-0.00263096671551
-0.0120409484953
-0.00363604840823
0.000900029321201
-0.0021731837187
-0.00759270368144
-0.000806043681223
-0.000726833648514
0.00274939811788
0.00460584368557
0.00310311280191
0.00590263772756
0.00255955778994
-0.00728141609579
-0.00525035848841
0.00332350307144
0.0118168350309
0.00791079923511
-0.00884799379855
0.0139182657003
-0.00311416550539
0.00187377911061
0.0137454001233
-0.0149878645316
0.0011277628364
0.00531485071406
0.00689287297428
-0.0010039327899
0.00293000438251
-0.00647729123011
0.0150120938197
0.00126807834022
-0.000980873592198
0.00385005865246
0.00616700854152
0.00412700464949
0.00412288447842
-0.00599949946627
-0.00551327737048
0.0120839197189
0.00384744023904
-0.00234195939265
-0.00433324743062
0.00080996908946
0.00399175193161
-0.00134081440046
0.000359824713087
-0.000579637533519
-0.00435028830543
0.00699543673545
0.0183576922864
-0.00204754644074
-0.00378887960687
0.00351687939838
-0.000225741692702
-0.00318094692193
0.00292749144137
0.00171897711698
0.00847910530865
-0.00269570783712
-0.00843207072467
-0.0147644560784
-0.000629732094239
-0.00386639591306
-0.00562792690471
-0.00203865743242
0.0193938910961
0.00303411181085
-0.000945901439991
0.00466283550486
0.00139913207386
0.0057541243732
-0.0124900536612
0.00244474993087
-0.00635360833257
-0.00237940717489
0.00805491302162
-0.0102886036038
0.00135499739554
0.00959453638643
0.000184686941793
0.0032864054665
-0.00710795726627
0.00522370962426
0.00102793471888
-0.00236793514341
-0.000228964083362
-0.00243366276845
-0.000668134132866
-0.00494043622166
0.00363699300215
0.00625873357058
-0.0050955247134
0.00792651437223
-0.00225597224198
-0.00684416526929
-0.000147432045196
-0.0012165295193
-0.0026829438284
0.000167852835148
0.0175389312208
0.0028320106212
-0.00218509882689
-0.00327068637125
-0.00486536324024
0.0158790219575
-0.00863332301378
0.00218330416828
-0.00520152924582
0.00758439488709
0.00150575931184
-0.00746665149927
0.0120574496686
0.000388592918171
-0.00335453404114
0.00281520141289
0.000839705870021
0.00273100123741
-0.00328958313912
0.00813406612724
-0.0072491359897
0.00202121818438
-0.00181618391071
1.02776111817e-05
0.00785536319017
-0.00240984046832
0.0057854000479
0.0133056063205
-0.000774031504989
0.00439625559375
-0.00182304822374
-0.00285295047797
0.00316767650656
0.000269494979875
0.0012409145711
-0.00259395409375
-0.0015329697635
-0.00301952823065
0.00167748355307
0.000163418982993
0.00722678238526
0.0023174257949
0.00167710811365
0.00534892035648
0.00980660598725
-0.00463498523459
0.000691609457135
5.33999846084e-05
0.0035021987278
0.00916757714003
0.00229033781216
-0.00127649598289
-0.0051089162007
-0.00638558715582
-0.0032478433568
-0.00396153982729
0.00136877398472
-0.00123334210366
0.00502634607255
0.00279582501389
-0.00454789958894
-0.00686234887689
0.000936386175454
-0.00191150093451
0.00540761323646
-0.00637068878859
0.00557149434462
-0.00813166145235
0.0033436762169
0.00318608037196
-0.00174960703589
0.00215592584573
0.000126100436319
-0.00516713783145
-0.0107119251043
-0.000175958019099
-0.00527807977051
0.00128028867766
-0.000619651284069
0.00075015478069
-0.000403545214795
-0.00139568047598
0.00603833468631
-0.000633265066426
-0.00536920968443
-0.00748014310375
-0.00114162173122
-0.00174745416734
-0.00638353358954
-0.0052916361019
-0.00228135753423
-0.00370354461484
0.00541758863255
-0.00342955579981
0.0021142673213
-0.0059174564667
-0.00719336234033
0.0110388062894
-0.00216624233872
-0.00361666060053
0.00104273331817
0.00352491345257
0.000352658127667
-0.00495449267328
-0.00608866708353
-0.00452963029966
0.0045359339565
0.00889490079135
0.000336642551702
0.00736002298072
0.00095941091422
0.00573974382132
0.0117909666151
0.00654739094898
-0.00271487538703
0.00304291001521
-0.0051626865752
-0.00556766055524
-0.00794994737953
-0.0016285716556
0.00840092077851
0.00790556147695
-0.00581596372649
-0.00325378892012
0.00834733899683
0.00279832514934
-9.21165119507e-05
-0.00114749057684
-0.00915652606636
-0.000718284223694
0.000112140391138
0.00134838093072
-0.013621375896
-0.00389053509571
0.00727096758783
-0.00486296508461
0.00107203912921
-0.00489476509392
-0.00115181028377
-0.00224927114323
-0.00442534126341
0.00530324038118
0.000846397771966
0.00039953662781
-0.00462689250708
0.0017795918975
-0.00103700521868
-0.00671098427847
-0.000480342889205
0.00321864406578
0.00405163504183
-0.00303015764803
0.00271667470224
-0.000330671056872
0.00238965963945
-0.00483642006293
-0.00277291913517
-0.00121689774096
-0.00316782295704
-0.000282518012682
0.00214163167402
0.000245772971539
0.00681187165901
0.00311604933813
-0.0023345304653
0.00452663889155
0.00974722392857
0.00165298033971
0.00764766149223
-0.00247367285192
0.00504979956895
0.000691470049787
0.000771343184169
0.0069954409264
-0.000531715166289
-0.0032186624594
-0.00358094996773
0.0095350863412
-0.00314472196624
-0.00452138017863
0.00357061391696
0.00794938579202
-0.0089407293126
-0.004261856433
0.00906861852854
0.0169950276613
-0.012131806463
0.0116759324446
0.00535080721602
0.0075637800619
-0.00652055349201
0.00144620391075
0.00282406597398
0.00107896223199
0.00165253947489
0.00736076943576
0.00217984919436
-0.000451131752925
-0.00359992869198
-0.00745078455657
0.0028773189988
-0.00386772560887
0.000579770188779
4.6684712288e-05
-0.000416272174334
0.00185080477968
0.00968584604561
-0.00372590310872
0.00290712364949
-0.00877644587308
-0.00888179242611
0.00323794223368
-0.00375081575476
0.00523686688393
0.00906028505415
0.000625954533461
0.00303504150361
-0.000102623402199
-0.00689783273265
0.00723634054884
0.000758329406381
0.00190167303663
0.00201399042271
-0.000170735889697
0.0113261267543
0.00865159090608
-0.017016928643
-0.00348584610038
0.00938920211047
-0.000772378640249
0.005440489389
-0.00223069894128
-0.00127861427609
0.0132581349462
0.021862745285
-0.000685557548422
0.00712323794141
-0.00855320785195
0.00351829756983
0.00382389943115
-0.00715531362221
0.0047914236784
0.00456782616675
-0.000949598965235
-0.00487317889929
-0.00268128444441
-0.0074147330597
0.00732561619952
0.00700028752908
-0.00203304924071
0.00578189268708
0.000399582146201
0.00213152682409
0.0101315444335
-0.00368417636491
0.000494078209158
-0.00526383752003
-0.00760699762031
-0.00430249469355
-0.00147004995961
0.0170620959252
-0.00569541938603
0.000571192242205
-0.00634699361399
0.0101708993316
0.00231031235307
0.00238850107417
-0.00448167091236
-0.00275672739372
0.00388945196755
0.0108155654743
0.0156272016466
-0.00352836819366
0.000967074651271
0.00180703564547
0.00128875346854
-0.00450840964913
-0.0101744625717
-0.0105025582016
